23 50
el 0.3252085 0.0431828 0.15142705 0.27053282 0.026514603 0.4375577 0.12529343 -0.034383103 -0.29975164 -0.20144272 -0.059119195 0.044589717 0.11751292 -0.08865025 0.11183109 0.11276798 -0.22054903 0.010144783 -0.20741966 0.1885311 0.31933326 -0.49662003 0.017790891 0.13344817 0.039710894 -0.4198215 0.14560412 0.08697524 0.020784304 0.027777812 0.40057373 -0.2271077 0.037488192 0.39863673 0.054985326 0.15054984 0.43659848 0.2863575 0.09865224 0.12900274 -0.046502598 0.08804999 -0.20643452 -0.48232043 0.02578057 0.33904356 -0.20370375 0.0543923 -0.027850198 -0.27940506
la 0.29287195 0.040784243 0.16572556 0.25152957 0.036230545 0.44767827 0.1222491 -0.016398173 -0.28529 -0.19367486 -0.060264394 0.02750576 0.09695062 -0.07899959 0.13657464 0.07725439 -0.22265624 -0.013769765 -0.17412886 0.20436966 0.32461563 -0.50659317 0.034675065 0.14160874 0.026449868 -0.43268582 0.13384414 0.105593584 0.03145369 0.013365897 0.40493125 -0.24265623 0.055598196 0.39524925 0.027734507 0.13759753 0.45183155 0.3035869 0.11717467 0.11195788 -0.06491259 0.11185373 -0.22882114 -0.48809963 0.001179023 0.34139666 -0.18184958 0.074713 -0.022195233 -0.24475643
palacio 0.2990788 0.03163059 0.14477174 0.24338953 0.0057176193 0.38624996 0.11209088 -0.027224312 -0.26152962 -0.19247349 -0.065230116 0.008303258 0.090592496 -0.04778092 0.10498723 0.08747008 -0.1933297 0.017376974 -0.1887435 0.19114263 0.29137468 -0.45851788 0.02268177 0.14663363 0.02611858 -0.381965 0.1452977 0.0724027 0.02415649 0.022874454 0.37144363 -0.22965646 0.015978593 0.3581877 0.056904815 0.11169467 0.4084397 0.29552552 0.12350422 0.08542178 -0.0660692 0.103537686 -0.23769094 -0.4574092 0.0108545385 0.33584553 -0.19419497 0.076065436 -0.023638409 -0.26138076
reino 0.30664778 0.052767023 0.13743076 0.26083288 0.027904013 0.4265974 0.12467113 -0.020133978 -0.27930558 -0.20106669 -0.047723964 0.012748179 0.10711045 -0.04574005 0.09741064 0.09699992 -0.2149106 -0.0157919 -0.1886103 0.20169231 0.31388235 -0.46094924 0.027853126 0.14135031 0.008729506 -0.3983797 0.14255808 0.08302145 0.007934031 0.014006584 0.38834667 -0.24002583 0.055433836 0.3806618 0.04265425 0.13040397 0.42244062 0.27329502 0.102563776 0.09541805 -0.04464127 0.10778534 -0.23494704 -0.46960652 0.019917406 0.31694353 -0.16601522 0.049930807 -0.008959663 -0.263318
princesa 0.28596386 0.05973536 0.12032036 0.2438185 0.03356003 0.4005802 0.08360801 -0.017963815 -0.26808754 -0.1637068 -0.03607126 0.020321717 0.0765171 -0.06262039 0.09923331 0.10096644 -0.17323534 -0.0083674565 -0.16507305 0.18164754 0.29077065 -0.45415896 0.03679666 0.15414003 0.048205476 -0.40135068 0.11497139 0.10585085 0.017517421 0.0054152915 0.38350642 -0.20623095 0.045108166 0.36968273 0.043018796 0.114273086 0.4197635 0.26521802 0.113641426 0.11570693 -0.021355245 0.07245318 -0.19634518 -0.4347783 0.011094649 0.33033153 -0.15995005 0.07232255 -0.042707164 -0.23310705
rey 0.24508055 0.021432307 0.10852468 0.19809741 0.03530539 0.34786782 0.07570283 -0.033524856 -0.23658498 -0.16828051 -0.05261191 0.039585464 0.09965069 -0.052283537 0.11488757 0.07536973 -0.18518431 -0.010740106 -0.17786798 0.18009944 0.24453741 -0.4072348 0.00965499 0.14087985 0.00716552 -0.3391782 0.12736857 0.07524755 0.035240803 0.037814684 0.34038708 -0.18109852 0.031907037 0.31907246 0.05038006 0.10933324 0.37624243 0.25449675 0.08518984 0.08307542 -0.031897854 0.10165074 -0.20565385 -0.40871754 -3.1902973e-06 0.27538964 -0.17130831 0.061303224 -0.019624034 -0.19790733
reina 0.29749003 0.028352443 0.14915116 0.25009605 0.029510189 0.4072672 0.09164206 -0.010350873 -0.27826265 -0.17323324 -0.028246528 0.04686169 0.08389166 -0.07335492 0.112243675 0.088254586 -0.18007588 -0.014103093 -0.19229 0.16132116 0.28504327 -0.47205284 0.015541235 0.15530486 0.04195109 -0.3691023 0.12139331 0.07002379 0.034001566 0.029362736 0.39314184 -0.2153768 0.019428894 0.36040014 0.035687562 0.13371372 0.39998654 0.2594181 0.08465625 0.1214463 -0.03135639 0.08965248 -0.22001736 -0.43228325 0.007287544 0.32014865 -0.19517802 0.057559215 -0.014862339 -0.25994644
es 0.26959267 0.034239743 0.1019896 0.2250587 0.03209847 0.38127562 0.10639626 -0.008730361 -0.2276092 -0.18032688 -0.02011813 0.043110494 0.09786701 -0.047895495 0.11081198 0.10006284 -0.15666369 -0.0014271138 -0.15234463 0.18524392 0.25614837 -0.44414368 0.009727626 0.101981044 0.019462371 -0.37235704 0.09453479 0.06929865 0.031931866 0.012452062 0.36387306 -0.21078882 0.05119725 0.32616165 0.019899918 0.098026834 0.35860556 0.24885261 0.07304272 0.077755086 -0.053472497 0.097551316 -0.21136838 -0.41988257 0.010153994 0.28310996 -0.1631082 0.08646291 -0.007868666 -0.21692671
príncipe 0.26177394 0.04662622 0.11637455 0.21786235 0.008603278 0.36200684 0.080249116 -0.031921085 -0.22475557 -0.15773967 -0.046670984 0.0026562507 0.073130265 -0.04289478 0.093013056 0.10126804 -0.15317735 0.01197461 -0.18166526 0.14280099 0.2599957 -0.41603848 0.035322048 0.11543379 0.0098097995 -0.36016327 0.09809422 0.081381805 0.004021647 0.034266114 0.3268472 -0.19960962 0.03671723 0.33209082 0.032491323 0.12616399 0.35276788 0.2223844 0.10415939 0.100993134 -0.02490873 0.099713586 -0.18939637 -0.40613842 0.0133186085 0.28682628 -0.16209562 0.068082236 -0.033446517 -0.21073197
en 0.3002715 0.019810414 0.13550033 0.24357943 0.0015800945 0.40701842 0.11769436 -0.0074442225 -0.25544497 -0.16671024 -0.05344148 0.017088879 0.075512245 -0.054600634 0.09952862 0.10667207 -0.19283669 0.014819185 -0.1959053 0.1649512 0.28307545 -0.48045117 0.024647044 0.1449463 0.0342429 -0.39741558 0.104545444 0.08899197 0.026728775 0.04613118 0.39237624 -0.22125478 0.018624762 0.34414318 0.05443543 0.12911212 0.42547795 0.27468157 0.10635671 0.08461445 -0.037751775 0.08752416 -0.19583923 -0.4541473 -0.0010104277 0.32517532 -0.17088163 0.08355172 -0.026016213 -0.24893747
visita 0.1969802 0.020964898 0.10323842 0.17223412 0.0068959054 0.27616876 0.081500046 -0.02476694 -0.20047678 -0.13532759 -0.01792025 0.01648521 0.070157714 -0.06279064 0.0692098 0.07546802 -0.12572552 0.0013591327 -0.11203946 0.118829794 0.19178292 -0.3459083 0.004989188 0.10809505 0.03742037 -0.2916194 0.082576506 0.04616178 0.028464317 0.0032123297 0.27461642 -0.17159769 0.034140956 0.26964515 0.034924876 0.083747245 0.30215934 0.18059912 0.082911894 0.087726176 -0.029236862 0.07076131 -0.13494143 -0.32677498 -0.01176447 0.22419733 -0.1392383 0.06537253 -0.0043612346 -0.17807029
mujer 0.22144951 0.040620945 0.106485605 0.17026533 0.027464204 0.3334607 0.061051983 -0.0035826988 -0.21015114 -0.12996882 -0.01917074 0.030227752 0.07059133 -0.059614006 0.099373825 0.05492557 -0.1624186 -0.0024511786 -0.12607267 0.15845926 0.24549897 -0.38677666 0.011079535 0.09821952 0.030924762 -0.30879554 0.0796178 0.08080567 0.026885172 0.03542819 0.30534002 -0.18891554 0.04407168 0.27022448 0.008123466 0.11517787 0.320817 0.22176112 0.06306724 0.089657955 -0.03673202 0.09868365 -0.16402248 -0.3327001 0.021898724 0.27014047 -0.16146864 0.070451155 -0.016681869 -0.19589241
hombre 0.2082837 0.037259478 0.08709593 0.16413473 0.03621416 0.3145983 0.07822925 -0.0068365596 -0.20719273 -0.12849078 -0.0450357 0.018050438 0.060411282 -0.053069144 0.07626285 0.066529185 -0.14389835 -0.023989316 -0.14338706 0.15515524 0.21678819 -0.3453851 0.0026605052 0.097310565 0.03618707 -0.2890241 0.06970381 0.073487446 0.028019197 0.010272886 0.2624758 -0.14858294 0.016573176 0.28686854 0.021743616 0.09055144 0.31526142 0.1868495 0.05499363 0.085943095 -0.01246822 0.09586974 -0.17800708 -0.34639585 0.0037880242 0.24832772 -0.1180816 0.0660336 -0.024146764 -0.16348262
un 0.25453022 0.020122182 0.12136837 0.20011073 0.031377792 0.39517182 0.07728309 -0.036428552 -0.25866842 -0.18132348 -0.041843545 0.027569743 0.10889727 -0.06227139 0.11938176 0.09577647 -0.16179812 -0.017376248 -0.16904142 0.18894428 0.27906632 -0.43849564 0.03574033 0.13763793 0.008337527 -0.37657335 0.10083453 0.07853482 0.007204518 0.0019408696 0.32960445 -0.20852405 0.027946379 0.32310075 0.032289285 0.12800077 0.3643425 0.24595973 0.101037815 0.0746076 -0.019168476 0.11191994 -0.20784235 -0.3921838 0.0010087226 0.31145898 -0.1580209 0.053159934 -0.041983306 -0.22743441
vive 0.24845052 0.020145245 0.1129208 0.17830674 0.014691285 0.30593586 0.10348429 -0.01826939 -0.20157944 -0.1656041 -0.05362142 0.007905978 0.08257466 -0.038808033 0.09303085 0.075279556 -0.1376538 -0.013494439 -0.16231793 0.1565665 0.2519264 -0.3864887 0.0118259005 0.11219763 0.03328803 -0.32400882 0.11355396 0.0723037 0.027108524 0.025947854 0.30615842 -0.17411165 0.048796065 0.28539312 0.051875155 0.11753823 0.31588572 0.23785369 0.078506514 0.06805918 -0.04848801 0.05868371 -0.17834501 -0.3745781 0.011691458 0.27859244 -0.12633906 0.076290965 -0.033131257 -0.21187447
trabaja 0.16841573 0.042798758 0.088220425 0.11916194 0.024618989 0.2268579 0.051496454 -0.010832712 -0.14549163 -0.0832116 -0.010009113 -0.0023085016 0.06600861 -0.04579162 0.056964897 0.056835476 -0.08387371 -0.019923724 -0.10097306 0.092812665 0.17895204 -0.26330245 0.02949584 0.09136313 -0.003087148 -0.20691581 0.0758353 0.06302514 0.03527713 0.023091456 0.22636466 -0.11259311 0.011707628 0.21247391 0.026473258 0.07831809 0.24451026 0.16031197 0.04801596 0.047938637 -0.029234277 0.040306255 -0.13577978 -0.23434027 0.019109435 0.1644557 -0.105555795 0.058312602 -0.0011134882 -0.12937076
gobierna 0.1988075 0.0152111 0.098780155 0.16412392 0.017891334 0.23126912 0.054123618 -0.0137913255 -0.17039305 -0.12954268 -0.04314923 0.03767421 0.055754866 -0.038144927 0.06591264 0.07003943 -0.13473977 -0.010663615 -0.108531006 0.124896996 0.17743614 -0.27451798 0.027424082 0.08886081 0.028458444 -0.21726955 0.063662656 0.048494376 0.0029328463 0.011000893 0.20808622 -0.1239459 0.009812055 0.23244381 0.03445546 0.07189238 0.24519032 0.17369051 0.05644515 0.049010538 -0.04839457 0.06045515 -0.12752667 -0.2585814 -0.0067844107 0.17425075 -0.10185432 0.050791267 -0.0017815327 -0.17186439
una 0.23710106 0.05204359 0.1194681 0.18498603 0.020738306 0.31842172 0.057838142 -0.006241978 -0.20989613 -0.14123589 -0.014594818 0.033318512 0.09751618 -0.07334633 0.10982528 0.07686451 -0.1519907 -0.0010768389 -0.16453758 0.1654469 0.23709364 -0.39304373 0.03850371 0.10841741 0.004861433 -0.30402362 0.0755838 0.07380569 0.034574863 0.0011506657 0.3159731 -0.16796225 0.019844858 0.27157408 0.007807103 0.08908798 0.31400332 0.23272902 0.078600556 0.068117805 -0.022618916 0.07352798 -0.15576902 -0.33826068 0.028005634 0.26357448 -0.16147178 0.0613396 -0.024909336 -0.17869812
y 0.2473013 0.031601444 0.13935941 0.22093084 7.6567585e-06 0.37796426 0.089205824 -0.010420017 -0.23370747 -0.15914248 -0.047472525 0.0185383 0.06708258 -0.054784153 0.088462085 0.0788089 -0.18687147 0.0091896765 -0.14529158 0.15933181 0.25908014 -0.42127767 0.0034775212 0.13610055 0.04161625 -0.3502695 0.09201072 0.07117943 0.0064303274 0.03747084 0.35560957 -0.20310266 0.026525432 0.33864018 0.0189759 0.12903681 0.38799143 0.24320307 0.10364883 0.09994476 -0.023874495 0.06448725 -0.18458772 -0.40575454 0.02311722 0.3037042 -0.16912748 0.06774857 -0.022649202 -0.22001448
viven 0.28830898 0.043074433 0.14265917 0.23418841 0.009477348 0.38655272 0.092245184 -0.021292584 -0.2686916 -0.1850355 -0.050828464 0.013815755 0.09235918 -0.06903077 0.09020679 0.08377669 -0.17717746 0.019352887 -0.1701648 0.16423474 0.2672436 -0.44351372 0.040573046 0.12764047 0.017925449 -0.3647422 0.12535335 0.102024145 0.012494622 0.042880584 0.37758 -0.21271543 0.026586862 0.33054036 0.028229276 0.14082095 0.37921834 0.25541598 0.11654277 0.106096156 -0.055243403 0.06772736 -0.21409585 -0.40475726 -0.0024149278 0.29666254 -0.1665019 0.068787396 -0.0431159 -0.24504861
protege 0.18943116 0.01861271 0.06996712 0.15265124 0.012004811 0.2496905 0.045738555 -0.013778787 -0.14281894 -0.095531635 -0.018751234 0.014485947 0.0696665 -0.044037476 0.07001345 0.056598134 -0.11954639 -0.013641469 -0.10427125 0.09821068 0.17050883 -0.26361778 0.026873168 0.0903032 0.016855424 -0.24624193 0.055479646 0.060245614 0.016682573 0.027337288 0.22104451 -0.12901086 0.010737003 0.19008547 0.007388553 0.08410082 0.23966062 0.14595595 0.05322354 0.06615795 -0.028975518 0.04943641 -0.13136874 -0.25222164 0.022441763 0.17665058 -0.11298348 0.040486157 -0.028650934 -0.1417934
cuida 0.17677732 0.026411584 0.063079864 0.11988408 -0.003648574 0.24139322 0.04986355 -0.020300616 -0.13191184 -0.108873256 -0.03692917 0.005867993 0.04947768 -0.05415493 0.06746229 0.04830147 -0.08770431 0.008660126 -0.10512839 0.11081341 0.17428899 -0.26883525 0.00097024924 0.06132766 -0.0041980622 -0.22121307 0.078662805 0.058593065 0.008306577 0.012061406 0.21856777 -0.10274481 0.01023216 0.20437548 0.02558156 0.075401515 0.2368335 0.16175865 0.051007163 0.064962834 -0.043655854 0.046820346 -0.12876628 -0.2538414 0.022821357 0.17252035 -0.11668806 0.03835262 -0.03054731 -0.15017407
tiene 0.18605374 0.023896802 0.07546506 0.16269949 0.015304489 0.24857798 0.08063722 -0.029621983 -0.17905253 -0.13289356 -0.0113497 0.008828661 0.07865019 -0.023216655 0.058153685 0.043245833 -0.14492044 -0.014383747 -0.12418938 0.10519004 0.2086009 -0.30371746 0.030108415 0.06687396 0.0025968933 -0.2560372 0.06266035 0.04209797 -0.005482906 0.006211118 0.2566451 -0.12876844 0.023303939 0.2212434 0.023015209 0.088968135 0.24917305 0.17000818 0.07773337 0.064108565 -0.0282981 0.07580254 -0.13085143 -0.3041898 0.013304466 0.22508945 -0.12907992 0.063000366 -0.01350628 -0.15243344
